encog,BasicNetwork,java,3.2.0,1,1398193027818
[BASIC]
[BASIC:PARAMS]
[BASIC:NETWORK]
beginTraining=0
connectionLimit=0
contextTargetOffset=0,0,0
contextTargetSize=0,0,0
endTraining=2
hasContext=f
inputCount=3
layerCounts=1,31,4
layerFeedCounts=1,30,3
layerContextCount=0,0,0
layerIndex=0,1,32
output=0.0615765521,0.2823858503,1,0.0000000004,1,0.0644258927,0,0.0000000076,0.4900997886,0.999990068,0.9999999999,0.9999998872,0,0,0.9996330744,0.0001290806,0.0000510297,1,0.9999974733,0,0,0.9999999997,0,0.0000836355,0,0.99999588,1,0.0000048414,0.8850792673,0,0,1,9,-7,0,1
outputCount=1
weightIndex=0,31,151
weights=-3.1994021424,2.0170200269,-1.3075318831,2.0542221343,2.7342983821,3.4244883207,4.2004117365,3.2334928936,-4.0864966762,1.1249147213,-0.764274331,2.2399197086,1.3026524201,-0.5261330335,0.7996973248,-1.3759678745,-0.7433747151,-1.3830478103,-4.0484782768,0.449471157,-1.613183966,1.6771646257,-4.9884901739,3.9750791135,4.3513703778,0.1875584867,-1.0827759537,-1.850177841,2.3103540465,-5.7958224182,-2.5621990817,1.7431578399,1.7642470682,2.6053583655,-4.2713487105,6.3960475269,2.4076835376,4.4231783646,-0.2714381741,0.1603283856,2.946493575,4.7015657131,-2.5276811526,4.3761611387,-1.6248181721,3.1959510865,-3.2169573324,1.9117058103,1.762074567,3.2058506611,-7.5464750691,-1.3967998127,6.6070848874,5.4187370412,1.2598858909,5.3199958971,9.1400147022,5.523638011,-2.5904259551,1.614509165,1.3935050917,-1.275983258,-4.8156528652,5.195833308,5.4590189066,1.5231249471,2.9703752691,4.9208509893,3.1746204827,1.2241454854,1.1757708736,6.7121761833,6.7692223511,7.9984274435,2.9722494433,-3.7754937283,3.0124561255,4.8600215048,-0.7393596513,1.1435047582,4.785298069,-0.8073609987,-1.6934431063,0.5812634234,-0.7017959254,1.2163512549,-2.2339578663,0.2196051891,1.800560111,0.3595206734,1.6725296149,1.6578858837,3.4870103408,1.5727942185,-0.3949526637,4.3159635423,-1.0553485934,-1.8036569101,-1.8052873926,1.613646725,0.0395179761,2.2838485654,-1.3575919261,-4.7136578978,4.4236286885,-1.1906601487,-0.3535500529,-3.7795459457,2.9812032551,6.2563009979,4.7981775093,1.1649440639,-1.2293959641,1.8433115919,2.8390707709,-1.2981743558,3.4458521096,-1.5840728407,-9.660499304,4.015248088,5.6462066557,-2.7794275763,-6.0027447661,-3.3161364733,1.8997483318,-1.9497713061,5.1093363277,4.4040704935,3.1594905377,0.219411769,-5.1205477898,4.1685569952,0.4994523529,1.7089363481,-3.3197527764,-0.3028501401,0.7490079973,-2.8809477421,-4.2695934166,4.7429957498,5.4553656822,1.9394314371,-2.4579673741,-0.9778603468,2.407883428,-0.8691676444,-0.3379313196,0.0877870205,5.7321147264,2.3074120848,-1.9140342701
biasActivation=0,1,1
[BASIC:ACTIVATION]
"org.encog.engine.network.activation.ActivationSigmoid"
"org.encog.engine.network.activation.ActivationSigmoid"
"org.encog.engine.network.activation.ActivationLinear"
