encog,BasicNetwork,java,3.2.0,1,1398193064812
[BASIC]
[BASIC:PARAMS]
[BASIC:NETWORK]
beginTraining=0
connectionLimit=0
contextTargetOffset=0,0,0
contextTargetSize=0,0,0
endTraining=2
hasContext=f
inputCount=3
layerCounts=1,31,4
layerFeedCounts=1,30,3
layerContextCount=0,0,0
layerIndex=0,1,32
output=0.2395341004,0.9999999998,0.0367270817,0,1,0.9999999994,0,0.0000000001,0.1753167329,0.9875594904,1,0.9999999996,0,0.9999999997,0.0017478812,0.9999999999,0,0,0.0041834062,0,0,0.001119277,0,0.999995318,0.5859181954,0.0000000001,0,0.0319027047,0.9984294582,0.0000036075,0.9991649911,1,9,-7,0,1
outputCount=1
weightIndex=0,31,151
weights=-1.972541225,0.4077317846,2.8266725336,-0.6000764386,-2.7597176759,2.9003998793,-0.4976122007,-3.2290604892,3.4961803152,5.7143427455,0.1268601808,-0.6245202213,-0.1872564409,0.0328516725,2.5351632234,-2.0869838111,-2.0457776921,3.9612016432,-0.1338343423,-1.3635134855,-1.2914075102,1.396624181,-1.7418988371,0.2031592468,1.5474295067,-0.0121520288,-2.5947305989,-2.651831618,-2.364011316,-2.5951413264,0.0175389387,2.7465024748,0.0532205542,5.7965037795,-1.8489323331,0.786426572,1.6353699152,0.9932856025,1.1029278866,-1.5439885515,0.8862244056,0.6591484258,-4.0432543224,5.6410507711,3.469036947,1.3407659302,-0.2735133553,1.0989898129,-2.4743984478,1.2765618049,-6.0496997255,-1.5089140039,1.8419840927,5.0964152676,1.9345911682,0.1482020416,2.5792284676,1.0648146574,-6.0856048233,2.4867640506,3.6490067724,4.3163879996,1.6137657975,2.0075950765,2.4580800614,1.5175394591,3.5124834322,6.5104864347,-0.853071433,1.1908665243,7.6714519286,2.9479451414,0.5017256623,0.0682170994,-1.335553851,3.8945615248,9.2735321487,3.7614811161,-2.3398983965,4.6371282956,2.0956776525,2.3522049672,-5.0523871134,1.6898571391,2.4924572897,-0.2933569978,-4.1091147798,5.0482625629,2.3013878563,3.8263140173,-6.3897157783,-4.4108717283,-1.1586648842,1.582519057,2.0808435706,-0.5325201762,8.2695339972,1.5146235412,1.2222105217,0.7712201335,2.3475491293,0.8741839488,4.0194254011,-0.6866016889,3.7605110469,0.9630259663,1.4316964763,-1.1173202371,5.0678467821,3.0430217056,0.0372988851,-0.7282459685,1.0000913833,1.5325837101,6.7609010036,-1.0215754979,8.0963048784,4.6688348377,2.914379741,-1.0641803193,-2.5354333663,1.8748182596,4.1013720138,1.1904481032,1.2495622033,8.0799899581,-1.6199808737,0.5631505486,3.790472987,0.0585589784,-1.8953140977,1.135690623,4.6854030853,5.6466198272,-2.7911118959,3.6426205251,5.5688710602,1.6457464152,2.7858708946,4.3709964183,4.8962665079,3.119797995,1.3896606414,2.5516970183,4.5478086405,-3.0535248925,-3.663093187,0.6842573098,0.8488577343,5.2254415527,6.8709211179
biasActivation=0,1,1
[BASIC:ACTIVATION]
"org.encog.engine.network.activation.ActivationSigmoid"
"org.encog.engine.network.activation.ActivationSigmoid"
"org.encog.engine.network.activation.ActivationLinear"
