encog,BasicNetwork,java,3.2.0,1,1398193121299
[BASIC]
[BASIC:PARAMS]
[BASIC:NETWORK]
beginTraining=0
connectionLimit=0
contextTargetOffset=0,0,0
contextTargetSize=0,0,0
endTraining=2
hasContext=f
inputCount=3
layerCounts=1,23,4
layerFeedCounts=1,22,3
layerContextCount=0,0,0
layerIndex=0,1,24
output=0.0306929382,1,0.9999999994,0,0.9996690984,0.9999995397,1,1,0,0.812822592,0,0.9096919448,0.000000068,0,0.9998981605,1,0.9999720598,1,1,0.0000000138,1,0,0,1,9,-7,0,1
outputCount=1
weightIndex=0,23,111
weights=4.2703835923,-2.2816861494,-0.1629453027,1.0225157461,2.9305930137,0.7371444143,1.0989211445,3.7765485298,-3.3747191678,-1.4088948959,-2.1751875585,2.7502284971,0.5500326516,-5.5764149781,-0.9666650473,-0.590149729,1.3315873941,-2.0482210838,-2.2073497263,1.5471654795,-4.6760557642,0.591840218,-0.2061689046,6.5577405969,1.2575504668,4.9875045635,-0.2213281239,5.5461236762,4.008995972,3.3477391898,-0.6483577277,-0.791848767,3.002820559,3.0652247174,-3.5380982611,0.9799784836,-0.0932270543,1.8251185892,-1.4590371903,2.729622967,1.5636761161,-0.1639260048,0.9704685,6.7928621451,2.559604019,2.5866030439,0.3549124033,4.8835028399,1.6110831765,-1.4000263025,-5.3772569945,-1.8655983403,3.3468336409,1.3900277357,1.7952564246,3.2542613897,3.9343731047,1.9488883552,-0.2792847756,-2.657198387,1.7243305101,-1.0948032681,-1.6128300389,3.3461447953,4.7389881827,-4.1351878294,5.3674934798,0.323186331,2.689922773,4.5382272789,-0.5832236521,0.7725838996,5.5855888186,-6.8998245282,-0.5950998806,0.6901595819,-1.2238235759,0.8488721084,-5.5861908924,2.5784691656,-0.5151206781,2.7269927189,-0.8513766045,3.785717001,3.0543926861,3.0989102461,-2.2052885785,3.5753687206,-3.8142020216,0.0548857737,3.2784312904,5.9845562449,-3.3352346167,3.5289044496,1.2577783753,2.2642707985,4.9505959473,2.9791404831,-3.8238633312,3.2447313589,-0.3216069914,2.3959854545,-6.0999764987,-1.5840224016,5.8281412128,1.9981301388,1.4850300468,-2.2494798418,1.5406796889,0.9269581598,-6.842909301
biasActivation=0,1,1
[BASIC:ACTIVATION]
"org.encog.engine.network.activation.ActivationSigmoid"
"org.encog.engine.network.activation.ActivationSigmoid"
"org.encog.engine.network.activation.ActivationLinear"
