encog,BasicNetwork,java,3.2.0,1,1398191877989
[BASIC]
[BASIC:PARAMS]
[BASIC:NETWORK]
beginTraining=0
connectionLimit=0
contextTargetOffset=0,0,0
contextTargetSize=0,0,0
endTraining=2
hasContext=f
inputCount=3
layerCounts=1,30,4
layerFeedCounts=1,29,3
layerContextCount=0,0,0
layerIndex=0,1,31
output=0.0153635059,0.00003032,0.9999992278,1,0.9999465797,1,0,0.9999999975,0.9999999999,0.0000000019,0.0000000014,0.9999999984,0,0,0.0076731815,0.99211068,0.0000000004,0.0000019453,0.7903090094,0,0.9999999987,1,0,0,0.9999999115,0,0.9999997602,0.9983389581,0.0000103975,1,1,9,-7,0,1
outputCount=1
weightIndex=0,30,146
weights=3.657621878,3.1249479664,3.4298765608,-6.6564560362,-0.6376255414,3.7130268098,2.1826465154,3.19021658,-4.4069726099,0.7235425378,-0.8046857854,-0.8997297715,0.3013950654,0.9162390966,0.3606931599,-3.7771605867,4.1853973953,-1.5345206059,4.3757759584,1.7312816904,1.5078323921,-3.1260919632,0.1429190782,-3.3652524147,-1.9215365001,-2.3922466274,-0.5904406414,2.0243926389,-1.9429738936,-2.0910057629,3.5789473247,5.5926778923,-0.4356115992,-3.4654528256,3.7472922781,2.8121479875,3.1629949634,0.0333870985,5.0704313215,0.5509791543,-0.5059725595,-2.6179342829,2.7125027628,2.3328226421,-1.6744755176,1.7545005087,4.6162009442,-0.6868651685,1.6828196778,-4.6885995416,0.1140346623,3.6534747538,4.4822320195,-0.170170315,0.8897912893,-1.5138667516,3.0895953368,1.2030433362,3.2584916478,1.3826092401,2.831113999,3.0769069498,1.7043387388,4.2568010768,2.6678632315,-5.6407256093,-1.7677165598,1.0280782278,0.5918962597,2.6952621682,-0.0023994966,-2.5196080615,2.7665750783,2.6662348476,-2.5859402461,1.4103475779,0.4895215739,5.4046078615,-3.6278754429,4.4302768522,2.7207184684,0.6192951366,-0.0969437466,0.009036209,-2.6028545918,-3.9265740037,0.4141968967,0.2958900459,3.7048714123,3.1777829796,0.4644101912,3.4066995342,1.1519651466,-2.0809901123,2.7470134638,5.8195812431,-0.9235110072,2.8638707965,3.3379982169,3.0955376242,2.3167040936,-7.0464315365,-1.1723988194,2.5797082402,-0.7871433712,-1.9468124261,3.2949377367,0.8801987875,-0.7691061646,-3.0593733696,3.6010748663,-0.0468234016,0.4662543324,0.9278057796,2.3933405327,7.3269702606,0.3195727795,-2.4107456026,-0.7932171158,2.6596846302,3.4015305279,1.9357518299,4.2936019893,3.4985254101,3.0464414613,2.0871566057,-1.5366268978,3.4282607866,4.7333694072,-2.8293327477,6.1916725736,6.1644727474,-0.6134231726,2.6696146146,1.9269373948,1.8622155719,5.9666069322,2.0917202777,0.9183141757,3.0506774379,-0.1342435224,1.6159799168,6.2948200676,-3.3514090751,-1.1152975575,-0.4461198737
biasActivation=0,1,1
[BASIC:ACTIVATION]
"org.encog.engine.network.activation.ActivationSigmoid"
"org.encog.engine.network.activation.ActivationSigmoid"
"org.encog.engine.network.activation.ActivationLinear"
