encog,BasicNetwork,java,3.2.0,1,1398191763360
[BASIC]
[BASIC:PARAMS]
[BASIC:NETWORK]
beginTraining=0
connectionLimit=0
contextTargetOffset=0,0,0
contextTargetSize=0,0,0
endTraining=2
hasContext=f
inputCount=3
layerCounts=1,21,4
layerFeedCounts=1,20,3
layerContextCount=0,0,0
layerIndex=0,1,22
output=0.1354669007,0,0,0,0.0000000001,0.9999999999,1,0.0000314047,0,0,0,0,1,0,0,0,0,1,0,1,0.0000264218,1,9,-7,0,1
outputCount=1
weightIndex=0,21,101
weights=-1.7544743272,0.5996948682,3.1329435489,1.2341838122,4.4097335471,0.8275192932,0.1440176208,-1.010650085,1.0721224996,2.853994145,3.7966404767,0.6543218869,-7.6809003648,-2.1812856918,-0.5824952181,5.2360307058,-0.4144027512,-2.0116857287,-1.5124468981,5.7839263725,-5.8183446779,-0.7714550103,5.0153370864,1.9053784254,-2.9048673535,0.2349647967,9.6071468562,1.0740399866,1.8695118646,-3.2220244341,0.7604111235,5.1780232648,0.4110645195,1.4461843468,4.6193850144,2.0362979358,-4.300061835,4.6526743559,3.5204889553,6.7190762485,5.4631181981,6.2107398358,1.2580772391,1.6872838177,-2.9576202374,0.4030609344,2.374583092,-0.3912872151,2.6260125959,1.6459163322,7.9032828372,1.970860261,3.502084672,-2.1113369056,3.5836537497,3.1293766493,-0.0255863728,-3.6310769576,5.2556975312,-0.713522275,-2.9411798393,2.0295139891,6.140145255,-1.1914249882,-0.6613518929,7.6003054974,3.6409391597,3.7508942146,0.3414990406,2.733389269,6.5283697421,3.6392859715,-3.2510661946,-5.4035738369,4.6899839588,0.8049328174,-0.5427285109,2.8403315957,6.8782558049,1.8474036804,-5.9371257691,-4.0834033556,-1.1983127971,0.9410419555,-2.5491365612,5.1513148361,2.4912587179,-0.1457257824,-1.0976460282,-0.833816997,5.9883971602,0.899464297,-0.1625118287,4.5868801993,-4.8596755607,8.3750512164,0.5665197871,0.3744852312,1.1785268077,-0.8534756483,-5.6619754114
biasActivation=0,1,1
[BASIC:ACTIVATION]
"org.encog.engine.network.activation.ActivationSigmoid"
"org.encog.engine.network.activation.ActivationSigmoid"
"org.encog.engine.network.activation.ActivationLinear"
