encog,BasicNetwork,java,3.2.0,1,1398191672718
[BASIC]
[BASIC:PARAMS]
[BASIC:NETWORK]
beginTraining=0
connectionLimit=0
contextTargetOffset=0,0,0
contextTargetSize=0,0,0
endTraining=2
hasContext=f
inputCount=3
layerCounts=1,10,4
layerFeedCounts=1,9,3
layerContextCount=0,0,0
layerIndex=0,1,11
output=0.1495895128,0.0007912477,0,0.9999863326,0.9999999985,1,0,0,0.9883458212,0.9999988476,1,9,-7,0,1
outputCount=1
weightIndex=0,10,46
weights=3.2100666345,4.3964435426,0.8816888467,4.8321469006,-2.3003999378,-2.0007099847,-3.9948070659,-1.5916447785,-2.7134786908,-0.8672168777,0.1432009218,1.6301631394,-0.1294069766,2.9812257873,-1.386842153,2.5692323896,-0.2501810048,-3.5076254223,2.4568240871,2.4838498161,0.0361544005,6.476017515,2.7588655611,0.1837064139,-0.0445337478,-3.2443769214,4.9095065741,-2.6272695794,-1.2258573497,2.2542386203,-0.5681234998,3.3655947755,0.6227832073,-0.1514065773,0.0105640756,6.2351534928,2.0689931343,-1.8285076455,0.8792371908,0.2063528239,-2.7654116098,-2.0282971023,4.790032578,3.7356173532,-0.8402986072,-3.2872752554
biasActivation=0,1,1
[BASIC:ACTIVATION]
"org.encog.engine.network.activation.ActivationSigmoid"
"org.encog.engine.network.activation.ActivationSigmoid"
"org.encog.engine.network.activation.ActivationLinear"
