encog,BasicNetwork,java,3.2.0,1,1398191709794
[BASIC]
[BASIC:PARAMS]
[BASIC:NETWORK]
beginTraining=0
connectionLimit=0
contextTargetOffset=0,0,0
contextTargetSize=0,0,0
endTraining=2
hasContext=f
inputCount=3
layerCounts=1,18,4
layerFeedCounts=1,17,3
layerContextCount=0,0,0
layerIndex=0,1,19
output=0.2547363036,1,1,0,0,1,1,0.9884888463,0.9990377451,1,0,1,1,1,1,1,0,0.0000000388,1,9,-7,0,1
outputCount=1
weightIndex=0,18,86
weights=-0.7052248869,0.2633180829,0.5971884636,3.6069083894,3.5687038572,0.848868345,-1.2246652208,-3.784411851,-3.5394529662,-5.1241758537,1.2690808626,-0.8126229692,1.3629722931,2.8186965689,-3.0881558592,-3.5488553938,2.5879639923,1.9316455608,4.2144739266,0.6791886161,-1.3073059605,2.635157068,7.0156530988,0.247481881,3.3782515698,-1.9758981463,-1.6874220816,3.1092610682,0.8100950894,-1.9731403282,-2.4381334823,2.3940289045,5.4007949135,0.8337300339,3.1490592454,0.7479228723,2.9977343715,1.3931815665,4.4976646735,-0.2815060753,2.1479144209,-4.1358590427,0.17422815,-0.9073825229,0.1375141424,-3.4668701063,4.101960717,4.2519283139,2.1820078232,-0.2088798018,5.2419131227,2.9901984558,-1.9886863669,3.3384766673,1.2281592023,5.6126841827,2.4141051317,-4.6637663634,6.5727590338,0.6497523214,1.2349510669,-1.448926181,1.5887415291,-1.525272901,1.7747245377,6.2092726017,5.4232759431,-0.4069919371,0.7865025097,-3.404554062,6.9599050345,4.9274888469,-0.0838713782,-1.9601194929,1.3799445232,-2.8982868218,3.2867488413,-2.2341543979,-2.9169263118,3.0119481269,1.722909455,1.7115237499,-0.9135812485,1.3843912181,0.0552307335,0.8487455633
biasActivation=0,1,1
[BASIC:ACTIVATION]
"org.encog.engine.network.activation.ActivationSigmoid"
"org.encog.engine.network.activation.ActivationSigmoid"
"org.encog.engine.network.activation.ActivationLinear"
