encog,BasicNetwork,java,3.2.0,1,1398191739662
[BASIC]
[BASIC:PARAMS]
[BASIC:NETWORK]
beginTraining=0
connectionLimit=0
contextTargetOffset=0,0,0
contextTargetSize=0,0,0
endTraining=2
hasContext=f
inputCount=3
layerCounts=1,19,4
layerFeedCounts=1,18,3
layerContextCount=0,0,0
layerIndex=0,1,20
output=0.1514504405,0.9854615972,1,1,0.8965253814,1,0.000118297,0.9999999996,0,0,0.007705907,0.9965596663,0,0.999991316,0.9996557192,1,0.0034242821,0,0.6672802796,1,9,-7,0,1
outputCount=1
weightIndex=0,19,91
weights=-0.6103635735,3.1271303236,5.7645857082,1.5230692701,-1.6754979207,-3.000873611,2.9570864099,2.2882100852,-2.5574077703,2.2034197401,-3.7090177333,2.555506606,-5.4290342173,-2.9017173764,0.8039015133,0.0781478407,2.4858588145,2.0088083468,-2.7958237068,0.5283354184,0.3663621757,1.5935371718,2.0258330059,4.3264952634,2.491071872,3.6169070345,5.2190482971,4.5883926352,0.8960008064,2.7586343799,0.8904326996,1.6241084589,1.5980262509,2.0169250951,-1.2715921207,0.8006747688,-2.6942466752,2.5234384177,1.1215390236,2.0072758492,3.9167225813,-2.0748542639,0.3093814459,1.5270673782,-1.320373498,0.1574595417,-1.4343230634,-1.1140083725,2.0036918072,9.7515514263,-0.4269439274,-0.0770139355,4.2465296922,1.6812542731,-2.014874522,-0.0498241197,0.8522806454,0.8430242485,1.5563492454,3.2520050404,3.5566758243,4.0036064032,1.2974259525,-4.4713037401,6.3219996653,-0.3120905573,-3.0686048344,3.9396504245,3.3106516936,2.450842648,-0.6282763507,0.878016475,0.1546898035,2.740605671,1.1543889999,9.6080889599,3.1710050426,1.4985863992,-4.3379235487,1.5457430467,2.676612462,-0.1210331172,-0.8488334635,-2.2471586625,1.2539542429,-1.1350787409,2.6937860903,1.3704839015,1.2633785648,-0.1370010526,-2.7947954475
biasActivation=0,1,1
[BASIC:ACTIVATION]
"org.encog.engine.network.activation.ActivationSigmoid"
"org.encog.engine.network.activation.ActivationSigmoid"
"org.encog.engine.network.activation.ActivationLinear"
